<robot name = "robot">
 <neuron name = "0" type = "hidden" />
 <neuron name = "1" type = "hidden" />
 <neuron name = "2" type = "hidden" />
 <neuron name = "3" type = "hidden" />
 <neuron name = "4" type = "hidden" />
 <neuron name = "5" type = "hidden" />
 <neuron name = "6" type = "hidden" />
 <neuron name = "7" type = "hidden" />
    <synapse sourceNeuronName = "0" targetNeuronName = "4" weight = "-0.7998843357341792" />
    <synapse sourceNeuronName = "0" targetNeuronName = "5" weight = "-0.4310316796538658" />
    <synapse sourceNeuronName = "0" targetNeuronName = "6" weight = "-0.08954262696869875" />
    <synapse sourceNeuronName = "0" targetNeuronName = "7" weight = "0.7721929788931414" />
    <synapse sourceNeuronName = "1" targetNeuronName = "4" weight = "-0.3045887552174209" />
    <synapse sourceNeuronName = "1" targetNeuronName = "5" weight = "0.7097477854109822" />
    <synapse sourceNeuronName = "1" targetNeuronName = "6" weight = "0.13947251640518643" />
    <synapse sourceNeuronName = "1" targetNeuronName = "7" weight = "-0.6080925088883999" />
    <synapse sourceNeuronName = "2" targetNeuronName = "4" weight = "-0.9411889956497295" />
    <synapse sourceNeuronName = "2" targetNeuronName = "5" weight = "-0.9620196681898621" />
    <synapse sourceNeuronName = "2" targetNeuronName = "6" weight = "-0.9391673146301627" />
    <synapse sourceNeuronName = "2" targetNeuronName = "7" weight = "0.6619706265139291" />
    <synapse sourceNeuronName = "3" targetNeuronName = "4" weight = "0.8942519875955017" />
    <synapse sourceNeuronName = "3" targetNeuronName = "5" weight = "0.28224530611715304" />
    <synapse sourceNeuronName = "3" targetNeuronName = "6" weight = "-0.49627860844575467" />
    <synapse sourceNeuronName = "3" targetNeuronName = "7" weight = "-0.5358247808577206" />
    <neuron name = "8" type = "sensor" linkName = "root" />
    <synapse sourceNeuronName = "8" targetNeuronName = "0" weight = "-0.5952483591223527" />
    <synapse sourceNeuronName = "8" targetNeuronName = "1" weight = "0.7609634576215814" />
    <synapse sourceNeuronName = "8" targetNeuronName = "2" weight = "-0.3010238846684701" />
    <synapse sourceNeuronName = "8" targetNeuronName = "3" weight = "0.7477205362374215" />
    <neuron name = "9" type = "sensor" linkName = "000-100" />
    <synapse sourceNeuronName = "9" targetNeuronName = "0" weight = "-0.9165325402424886" />
    <synapse sourceNeuronName = "9" targetNeuronName = "1" weight = "-0.15468865025466094" />
    <synapse sourceNeuronName = "9" targetNeuronName = "2" weight = "-0.8995440818087035" />
    <synapse sourceNeuronName = "9" targetNeuronName = "3" weight = "0.07528346490776583" />
    <neuron name = "10" type = "motor"  jointName = "root_000" />
    <synapse sourceNeuronName = "4" targetNeuronName = "10" weight = "-0.7322792742090505" />
    <synapse sourceNeuronName = "5" targetNeuronName = "10" weight = "0.18587848618673264" />
    <synapse sourceNeuronName = "6" targetNeuronName = "10" weight = "0.43327772890968275" />
    <synapse sourceNeuronName = "7" targetNeuronName = "10" weight = "0.9422042967725244" />
    <neuron name = "11" type = "motor"  jointName = "000_000-100" />
    <synapse sourceNeuronName = "4" targetNeuronName = "11" weight = "0.6383794387073527" />
    <synapse sourceNeuronName = "5" targetNeuronName = "11" weight = "0.5733569303896036" />
    <synapse sourceNeuronName = "6" targetNeuronName = "11" weight = "0.5922672553971096" />
    <synapse sourceNeuronName = "7" targetNeuronName = "11" weight = "-0.5619865047509023" />
</robot>