<robot name = "robot">
 <neuron name = "0" type = "hidden" />
 <neuron name = "1" type = "hidden" />
 <neuron name = "2" type = "hidden" />
 <neuron name = "3" type = "hidden" />
 <neuron name = "4" type = "hidden" />
 <neuron name = "5" type = "hidden" />
 <neuron name = "6" type = "hidden" />
 <neuron name = "7" type = "hidden" />
    <synapse sourceNeuronName = "0" targetNeuronName = "4" weight = "0.08624446826237708" />
    <synapse sourceNeuronName = "0" targetNeuronName = "5" weight = "-0.4451796697081072" />
    <synapse sourceNeuronName = "0" targetNeuronName = "6" weight = "0.6430782756171185" />
    <synapse sourceNeuronName = "0" targetNeuronName = "7" weight = "0.08628661608461963" />
    <synapse sourceNeuronName = "1" targetNeuronName = "4" weight = "0.3595165431537555" />
    <synapse sourceNeuronName = "1" targetNeuronName = "5" weight = "-0.26873226088157565" />
    <synapse sourceNeuronName = "1" targetNeuronName = "6" weight = "-0.5914901798063414" />
    <synapse sourceNeuronName = "1" targetNeuronName = "7" weight = "0.9202823676048604" />
    <synapse sourceNeuronName = "2" targetNeuronName = "4" weight = "-0.2043982019866879" />
    <synapse sourceNeuronName = "2" targetNeuronName = "5" weight = "0.9499475714029424" />
    <synapse sourceNeuronName = "2" targetNeuronName = "6" weight = "-0.4191726351431253" />
    <synapse sourceNeuronName = "2" targetNeuronName = "7" weight = "0.06461277661384446" />
    <synapse sourceNeuronName = "3" targetNeuronName = "4" weight = "-0.12543229406337142" />
    <synapse sourceNeuronName = "3" targetNeuronName = "5" weight = "0.29267283473279915" />
    <synapse sourceNeuronName = "3" targetNeuronName = "6" weight = "0.1441138261896433" />
    <synapse sourceNeuronName = "3" targetNeuronName = "7" weight = "-0.9821654509392086" />
    <neuron name = "8" type = "sensor" linkName = "root" />
    <synapse sourceNeuronName = "8" targetNeuronName = "0" weight = "0.42297613149864843" />
    <synapse sourceNeuronName = "8" targetNeuronName = "1" weight = "0.006679325867302133" />
    <synapse sourceNeuronName = "8" targetNeuronName = "2" weight = "0.9432243398666191" />
    <synapse sourceNeuronName = "8" targetNeuronName = "3" weight = "0.3749415051322391" />
    <neuron name = "9" type = "sensor" linkName = "020-110-200" />
    <synapse sourceNeuronName = "9" targetNeuronName = "0" weight = "0.8516310188733254" />
    <synapse sourceNeuronName = "9" targetNeuronName = "1" weight = "0.3363055982968213" />
    <synapse sourceNeuronName = "9" targetNeuronName = "2" weight = "-0.5338994954812317" />
    <synapse sourceNeuronName = "9" targetNeuronName = "3" weight = "-0.05391267441301939" />
    <neuron name = "10" type = "sensor" linkName = "020-110-210" />
    <synapse sourceNeuronName = "10" targetNeuronName = "0" weight = "0.8655336544104102" />
    <synapse sourceNeuronName = "10" targetNeuronName = "1" weight = "-0.47057455787208724" />
    <synapse sourceNeuronName = "10" targetNeuronName = "2" weight = "0.5207165179756736" />
    <synapse sourceNeuronName = "10" targetNeuronName = "3" weight = "-0.05844021919664932" />
    <neuron name = "11" type = "sensor" linkName = "020-110-220" />
    <synapse sourceNeuronName = "11" targetNeuronName = "0" weight = "0.7655882812928985" />
    <synapse sourceNeuronName = "11" targetNeuronName = "1" weight = "0.006044065682774491" />
    <synapse sourceNeuronName = "11" targetNeuronName = "2" weight = "0.14465334466684432" />
    <synapse sourceNeuronName = "11" targetNeuronName = "3" weight = "0.772660264539555" />
    <neuron name = "12" type = "sensor" linkName = "020-110-220-300" />
    <synapse sourceNeuronName = "12" targetNeuronName = "0" weight = "-0.0522367708021787" />
    <synapse sourceNeuronName = "12" targetNeuronName = "1" weight = "-0.095964362543427" />
    <synapse sourceNeuronName = "12" targetNeuronName = "2" weight = "-0.06519253125314872" />
    <synapse sourceNeuronName = "12" targetNeuronName = "3" weight = "0.7542813402715394" />
    <neuron name = "13" type = "sensor" linkName = "020-110-210-300" />
    <synapse sourceNeuronName = "13" targetNeuronName = "0" weight = "0.21843159580397908" />
    <synapse sourceNeuronName = "13" targetNeuronName = "1" weight = "0.0672631699156716" />
    <synapse sourceNeuronName = "13" targetNeuronName = "2" weight = "0.1393861649162247" />
    <synapse sourceNeuronName = "13" targetNeuronName = "3" weight = "0.49829644768593107" />
    <neuron name = "14" type = "sensor" linkName = "020-110-200-300" />
    <synapse sourceNeuronName = "14" targetNeuronName = "0" weight = "-0.5413921425953758" />
    <synapse sourceNeuronName = "14" targetNeuronName = "1" weight = "0.10792937798949809" />
    <synapse sourceNeuronName = "14" targetNeuronName = "2" weight = "0.5855903951553987" />
    <synapse sourceNeuronName = "14" targetNeuronName = "3" weight = "0.7386335961910588" />
    <neuron name = "15" type = "sensor" linkName = "020-100-200" />
    <synapse sourceNeuronName = "15" targetNeuronName = "0" weight = "0.20319740191899238" />
    <synapse sourceNeuronName = "15" targetNeuronName = "1" weight = "0.20796590067963416" />
    <synapse sourceNeuronName = "15" targetNeuronName = "2" weight = "-0.8229619661936616" />
    <synapse sourceNeuronName = "15" targetNeuronName = "3" weight = "-0.581110326101554" />
    <neuron name = "16" type = "sensor" linkName = "020-100-210" />
    <synapse sourceNeuronName = "16" targetNeuronName = "0" weight = "-0.7778811869539006" />
    <synapse sourceNeuronName = "16" targetNeuronName = "1" weight = "0.34585328042774655" />
    <synapse sourceNeuronName = "16" targetNeuronName = "2" weight = "-0.9810782504829443" />
    <synapse sourceNeuronName = "16" targetNeuronName = "3" weight = "0.017921992712863766" />
    <neuron name = "17" type = "sensor" linkName = "020-100-220" />
    <synapse sourceNeuronName = "17" targetNeuronName = "0" weight = "-0.11865779084716843" />
    <synapse sourceNeuronName = "17" targetNeuronName = "1" weight = "-0.7560722506319935" />
    <synapse sourceNeuronName = "17" targetNeuronName = "2" weight = "-0.2413364662167281" />
    <synapse sourceNeuronName = "17" targetNeuronName = "3" weight = "0.6167704391153697" />
    <neuron name = "18" type = "sensor" linkName = "020-100-220-300" />
    <synapse sourceNeuronName = "18" targetNeuronName = "0" weight = "-0.8113223034816626" />
    <synapse sourceNeuronName = "18" targetNeuronName = "1" weight = "0.953829018471082" />
    <synapse sourceNeuronName = "18" targetNeuronName = "2" weight = "0.8034579723647102" />
    <synapse sourceNeuronName = "18" targetNeuronName = "3" weight = "0.26885747188073306" />
    <neuron name = "19" type = "sensor" linkName = "020-100-210-300" />
    <synapse sourceNeuronName = "19" targetNeuronName = "0" weight = "0.7842357224312724" />
    <synapse sourceNeuronName = "19" targetNeuronName = "1" weight = "-0.9341125615694787" />
    <synapse sourceNeuronName = "19" targetNeuronName = "2" weight = "0.6159763849094586" />
    <synapse sourceNeuronName = "19" targetNeuronName = "3" weight = "0.8187292775627417" />
    <neuron name = "20" type = "sensor" linkName = "020-100-200-300" />
    <synapse sourceNeuronName = "20" targetNeuronName = "0" weight = "-0.9129602988112677" />
    <synapse sourceNeuronName = "20" targetNeuronName = "1" weight = "-0.21967220921102215" />
    <synapse sourceNeuronName = "20" targetNeuronName = "2" weight = "0.3732710968596198" />
    <synapse sourceNeuronName = "20" targetNeuronName = "3" weight = "-0.05641168358517623" />
    <neuron name = "21" type = "motor"  jointName = "root_000" />
    <synapse sourceNeuronName = "4" targetNeuronName = "21" weight = "-0.9488057793666518" />
    <synapse sourceNeuronName = "5" targetNeuronName = "21" weight = "0.8375439893275001" />
    <synapse sourceNeuronName = "6" targetNeuronName = "21" weight = "0.054781935130388426" />
    <synapse sourceNeuronName = "7" targetNeuronName = "21" weight = "-0.804844900964782" />
    <neuron name = "22" type = "motor"  jointName = "000_010" />
    <synapse sourceNeuronName = "4" targetNeuronName = "22" weight = "-0.8634409137933858" />
    <synapse sourceNeuronName = "5" targetNeuronName = "22" weight = "0.21367016308674813" />
    <synapse sourceNeuronName = "6" targetNeuronName = "22" weight = "0.26432970366048814" />
    <synapse sourceNeuronName = "7" targetNeuronName = "22" weight = "-0.8820439019732909" />
    <neuron name = "23" type = "motor"  jointName = "010_020" />
    <synapse sourceNeuronName = "4" targetNeuronName = "23" weight = "-0.541512827530408" />
    <synapse sourceNeuronName = "5" targetNeuronName = "23" weight = "0.9313420435474129" />
    <synapse sourceNeuronName = "6" targetNeuronName = "23" weight = "0.2261883074030817" />
    <synapse sourceNeuronName = "7" targetNeuronName = "23" weight = "0.7627411925662264" />
    <neuron name = "24" type = "motor"  jointName = "020_020-100" />
    <synapse sourceNeuronName = "4" targetNeuronName = "24" weight = "-0.3925316420866394" />
    <synapse sourceNeuronName = "5" targetNeuronName = "24" weight = "-0.6068415214340592" />
    <synapse sourceNeuronName = "6" targetNeuronName = "24" weight = "-0.4496180859737853" />
    <synapse sourceNeuronName = "7" targetNeuronName = "24" weight = "0.3753607854129204" />
    <neuron name = "25" type = "motor"  jointName = "020-100_020-110" />
    <synapse sourceNeuronName = "4" targetNeuronName = "25" weight = "-0.7244614478796088" />
    <synapse sourceNeuronName = "5" targetNeuronName = "25" weight = "-0.2642193188353239" />
    <synapse sourceNeuronName = "6" targetNeuronName = "25" weight = "0.06967416449830588" />
    <synapse sourceNeuronName = "7" targetNeuronName = "25" weight = "0.5096055469077387" />
    <neuron name = "26" type = "motor"  jointName = "020-110_020-110-200" />
    <synapse sourceNeuronName = "4" targetNeuronName = "26" weight = "-0.9089244500730327" />
    <synapse sourceNeuronName = "5" targetNeuronName = "26" weight = "-0.6571154490673266" />
    <synapse sourceNeuronName = "6" targetNeuronName = "26" weight = "0.6129292693113741" />
    <synapse sourceNeuronName = "7" targetNeuronName = "26" weight = "-0.34991446814724547" />
    <neuron name = "27" type = "motor"  jointName = "020-110-200_020-110-210" />
    <synapse sourceNeuronName = "4" targetNeuronName = "27" weight = "-0.10751716359074459" />
    <synapse sourceNeuronName = "5" targetNeuronName = "27" weight = "0.09918392567470224" />
    <synapse sourceNeuronName = "6" targetNeuronName = "27" weight = "0.24280016091488887" />
    <synapse sourceNeuronName = "7" targetNeuronName = "27" weight = "-0.6654263720023512" />
    <neuron name = "28" type = "motor"  jointName = "020-110-210_020-110-220" />
    <synapse sourceNeuronName = "4" targetNeuronName = "28" weight = "0.23029716919149346" />
    <synapse sourceNeuronName = "5" targetNeuronName = "28" weight = "0.6868647813153494" />
    <synapse sourceNeuronName = "6" targetNeuronName = "28" weight = "0.9248893978748929" />
    <synapse sourceNeuronName = "7" targetNeuronName = "28" weight = "-0.7089601450061789" />
    <neuron name = "29" type = "motor"  jointName = "020-110-220_020-110-220-300" />
    <synapse sourceNeuronName = "4" targetNeuronName = "29" weight = "0.8353171824104633" />
    <synapse sourceNeuronName = "5" targetNeuronName = "29" weight = "-0.1678723326702991" />
    <synapse sourceNeuronName = "6" targetNeuronName = "29" weight = "-0.14945153254801724" />
    <synapse sourceNeuronName = "7" targetNeuronName = "29" weight = "0.9701479505985304" />
    <neuron name = "30" type = "motor"  jointName = "020-110-210_020-110-210-300" />
    <synapse sourceNeuronName = "4" targetNeuronName = "30" weight = "0.6430316953184629" />
    <synapse sourceNeuronName = "5" targetNeuronName = "30" weight = "0.31130012109714755" />
    <synapse sourceNeuronName = "6" targetNeuronName = "30" weight = "0.250294800686198" />
    <synapse sourceNeuronName = "7" targetNeuronName = "30" weight = "0.8625079653195911" />
    <neuron name = "31" type = "motor"  jointName = "020-110-200_020-110-200-300" />
    <synapse sourceNeuronName = "4" targetNeuronName = "31" weight = "0.830634417277134" />
    <synapse sourceNeuronName = "5" targetNeuronName = "31" weight = "-0.6269824639517467" />
    <synapse sourceNeuronName = "6" targetNeuronName = "31" weight = "0.5613786605385869" />
    <synapse sourceNeuronName = "7" targetNeuronName = "31" weight = "-0.9920085358310078" />
    <neuron name = "32" type = "motor"  jointName = "020-100_020-100-200" />
    <synapse sourceNeuronName = "4" targetNeuronName = "32" weight = "0.7332728271015871" />
    <synapse sourceNeuronName = "5" targetNeuronName = "32" weight = "0.5272892449576703" />
    <synapse sourceNeuronName = "6" targetNeuronName = "32" weight = "0.20619167077762723" />
    <synapse sourceNeuronName = "7" targetNeuronName = "32" weight = "-0.24344953169493633" />
    <neuron name = "33" type = "motor"  jointName = "020-100-200_020-100-210" />
    <synapse sourceNeuronName = "4" targetNeuronName = "33" weight = "-0.12550972679536931" />
    <synapse sourceNeuronName = "5" targetNeuronName = "33" weight = "0.7513745512437715" />
    <synapse sourceNeuronName = "6" targetNeuronName = "33" weight = "-0.46572000811885705" />
    <synapse sourceNeuronName = "7" targetNeuronName = "33" weight = "0.3618127896416925" />
    <neuron name = "34" type = "motor"  jointName = "020-100-210_020-100-220" />
    <synapse sourceNeuronName = "4" targetNeuronName = "34" weight = "0.34674058338666547" />
    <synapse sourceNeuronName = "5" targetNeuronName = "34" weight = "0.2967764038189673" />
    <synapse sourceNeuronName = "6" targetNeuronName = "34" weight = "-0.23397702948509091" />
    <synapse sourceNeuronName = "7" targetNeuronName = "34" weight = "0.6794986553274216" />
    <neuron name = "35" type = "motor"  jointName = "020-100-220_020-100-220-300" />
    <synapse sourceNeuronName = "4" targetNeuronName = "35" weight = "-0.5581163485479139" />
    <synapse sourceNeuronName = "5" targetNeuronName = "35" weight = "0.8598120782650043" />
    <synapse sourceNeuronName = "6" targetNeuronName = "35" weight = "0.5298294127396763" />
    <synapse sourceNeuronName = "7" targetNeuronName = "35" weight = "0.44890335449808405" />
    <neuron name = "36" type = "motor"  jointName = "020-100-210_020-100-210-300" />
    <synapse sourceNeuronName = "4" targetNeuronName = "36" weight = "0.8449276600769884" />
    <synapse sourceNeuronName = "5" targetNeuronName = "36" weight = "-0.45900495171074995" />
    <synapse sourceNeuronName = "6" targetNeuronName = "36" weight = "0.0483413490737461" />
    <synapse sourceNeuronName = "7" targetNeuronName = "36" weight = "-0.5086860026754771" />
    <neuron name = "37" type = "motor"  jointName = "020-100-200_020-100-200-300" />
    <synapse sourceNeuronName = "4" targetNeuronName = "37" weight = "-0.8632488201547799" />
    <synapse sourceNeuronName = "5" targetNeuronName = "37" weight = "0.8050841252804364" />
    <synapse sourceNeuronName = "6" targetNeuronName = "37" weight = "0.652658320521021" />
    <synapse sourceNeuronName = "7" targetNeuronName = "37" weight = "0.40430763614658716" />
</robot>