<robot name = "robot">
 <neuron name = "0" type = "hidden" />
 <neuron name = "1" type = "hidden" />
 <neuron name = "2" type = "hidden" />
 <neuron name = "3" type = "hidden" />
    <neuron name = "4" type = "sensor" linkName = "root" />
    <synapse sourceNeuronName = "4" targetNeuronName = "0" weight = "0.23632878422178605" />
    <synapse sourceNeuronName = "4" targetNeuronName = "1" weight = "-0.023097740004526468" />
    <synapse sourceNeuronName = "4" targetNeuronName = "2" weight = "0.3505311435058378" />
    <synapse sourceNeuronName = "4" targetNeuronName = "3" weight = "0.4167350931851781" />
    <neuron name = "5" type = "sensor" linkName = "010-100" />
    <synapse sourceNeuronName = "5" targetNeuronName = "0" weight = "-0.6226827607787297" />
    <synapse sourceNeuronName = "5" targetNeuronName = "1" weight = "0.9653038011859227" />
    <synapse sourceNeuronName = "5" targetNeuronName = "2" weight = "0.01094576566176464" />
    <synapse sourceNeuronName = "5" targetNeuronName = "3" weight = "-0.8493750685258938" />
    <neuron name = "6" type = "sensor" linkName = "010-100-200" />
    <synapse sourceNeuronName = "6" targetNeuronName = "0" weight = "0.3320047034401592" />
    <synapse sourceNeuronName = "6" targetNeuronName = "1" weight = "-0.8182191264289045" />
    <synapse sourceNeuronName = "6" targetNeuronName = "2" weight = "0.8227765484438923" />
    <synapse sourceNeuronName = "6" targetNeuronName = "3" weight = "0.790589394614261" />
    <neuron name = "7" type = "sensor" linkName = "010-100-201" />
    <synapse sourceNeuronName = "7" targetNeuronName = "0" weight = "-0.7271999116309358" />
    <synapse sourceNeuronName = "7" targetNeuronName = "1" weight = "-0.24925370621524512" />
    <synapse sourceNeuronName = "7" targetNeuronName = "2" weight = "-0.9640926129081091" />
    <synapse sourceNeuronName = "7" targetNeuronName = "3" weight = "-0.08462691685021428" />
    <neuron name = "8" type = "sensor" linkName = "000-100" />
    <synapse sourceNeuronName = "8" targetNeuronName = "0" weight = "0.6270604401007958" />
    <synapse sourceNeuronName = "8" targetNeuronName = "1" weight = "0.00506446845248032" />
    <synapse sourceNeuronName = "8" targetNeuronName = "2" weight = "0.9058196930119384" />
    <synapse sourceNeuronName = "8" targetNeuronName = "3" weight = "-0.41448926851608103" />
    <neuron name = "9" type = "motor"  jointName = "root_000" />
    <synapse sourceNeuronName = "0" targetNeuronName = "9" weight = "0.8096084090536926" />
    <synapse sourceNeuronName = "1" targetNeuronName = "9" weight = "-0.3550775208402639" />
    <synapse sourceNeuronName = "2" targetNeuronName = "9" weight = "-0.1311371077412351" />
    <synapse sourceNeuronName = "3" targetNeuronName = "9" weight = "0.3789496734173965" />
    <neuron name = "10" type = "motor"  jointName = "000_010" />
    <synapse sourceNeuronName = "0" targetNeuronName = "10" weight = "0.4156534612300218" />
    <synapse sourceNeuronName = "1" targetNeuronName = "10" weight = "0.3294660975107988" />
    <synapse sourceNeuronName = "2" targetNeuronName = "10" weight = "0.3063837783245966" />
    <synapse sourceNeuronName = "3" targetNeuronName = "10" weight = "-0.7015796030999863" />
    <neuron name = "11" type = "motor"  jointName = "010_010-100" />
    <synapse sourceNeuronName = "0" targetNeuronName = "11" weight = "-0.7717014475879302" />
    <synapse sourceNeuronName = "1" targetNeuronName = "11" weight = "-0.5826900891325992" />
    <synapse sourceNeuronName = "2" targetNeuronName = "11" weight = "-0.7305144506080932" />
    <synapse sourceNeuronName = "3" targetNeuronName = "11" weight = "-0.23470425276120066" />
    <neuron name = "12" type = "motor"  jointName = "010-100_010-100-200" />
    <synapse sourceNeuronName = "0" targetNeuronName = "12" weight = "-0.09395638397853245" />
    <synapse sourceNeuronName = "1" targetNeuronName = "12" weight = "0.20836654701933588" />
    <synapse sourceNeuronName = "2" targetNeuronName = "12" weight = "-0.8657057410429303" />
    <synapse sourceNeuronName = "3" targetNeuronName = "12" weight = "0.9069371206179409" />
    <neuron name = "13" type = "motor"  jointName = "010-100_010-100-201" />
    <synapse sourceNeuronName = "0" targetNeuronName = "13" weight = "0.5199381607020361" />
    <synapse sourceNeuronName = "1" targetNeuronName = "13" weight = "-0.5288857946054542" />
    <synapse sourceNeuronName = "2" targetNeuronName = "13" weight = "-0.6476830598250451" />
    <synapse sourceNeuronName = "3" targetNeuronName = "13" weight = "0.7147187657429683" />
    <neuron name = "14" type = "motor"  jointName = "000_000-100" />
    <synapse sourceNeuronName = "0" targetNeuronName = "14" weight = "-0.2995206781686468" />
    <synapse sourceNeuronName = "1" targetNeuronName = "14" weight = "-0.18630667144848245" />
    <synapse sourceNeuronName = "2" targetNeuronName = "14" weight = "-0.03267965239163839" />
    <synapse sourceNeuronName = "3" targetNeuronName = "14" weight = "-0.41376178898081073" />
</robot>