<robot name = "robot">
 <neuron name = "0" type = "hidden" />
 <neuron name = "1" type = "hidden" />
 <neuron name = "2" type = "hidden" />
 <neuron name = "3" type = "hidden" />
 <neuron name = "4" type = "hidden" />
 <neuron name = "5" type = "hidden" />
 <neuron name = "6" type = "hidden" />
 <neuron name = "7" type = "hidden" />
    <synapse sourceNeuronName = "0" targetNeuronName = "4" weight = "-0.5870925970794838" />
    <synapse sourceNeuronName = "0" targetNeuronName = "5" weight = "0.3252320468860259" />
    <synapse sourceNeuronName = "0" targetNeuronName = "6" weight = "0.5613450127913358" />
    <synapse sourceNeuronName = "0" targetNeuronName = "7" weight = "0.15310800112534628" />
    <synapse sourceNeuronName = "1" targetNeuronName = "4" weight = "0.025481948628208517" />
    <synapse sourceNeuronName = "1" targetNeuronName = "5" weight = "0.1482751104998974" />
    <synapse sourceNeuronName = "1" targetNeuronName = "6" weight = "0.2956146539675233" />
    <synapse sourceNeuronName = "1" targetNeuronName = "7" weight = "0.2665337969858852" />
    <synapse sourceNeuronName = "2" targetNeuronName = "4" weight = "-0.8606000100190683" />
    <synapse sourceNeuronName = "2" targetNeuronName = "5" weight = "-0.290284308035786" />
    <synapse sourceNeuronName = "2" targetNeuronName = "6" weight = "-0.32167296493987885" />
    <synapse sourceNeuronName = "2" targetNeuronName = "7" weight = "0.04405803437059341" />
    <synapse sourceNeuronName = "3" targetNeuronName = "4" weight = "0.06007737098027466" />
    <synapse sourceNeuronName = "3" targetNeuronName = "5" weight = "-0.8601690009540315" />
    <synapse sourceNeuronName = "3" targetNeuronName = "6" weight = "-0.055962298444742764" />
    <synapse sourceNeuronName = "3" targetNeuronName = "7" weight = "0.38803194921204964" />
    <neuron name = "8" type = "sensor" linkName = "root" />
    <synapse sourceNeuronName = "8" targetNeuronName = "0" weight = "-0.532019146272853" />
    <synapse sourceNeuronName = "8" targetNeuronName = "1" weight = "-0.6422500327043701" />
    <synapse sourceNeuronName = "8" targetNeuronName = "2" weight = "-0.7035486708913998" />
    <synapse sourceNeuronName = "8" targetNeuronName = "3" weight = "0.7666515524982982" />
    <neuron name = "9" type = "sensor" linkName = "000-120-200" />
    <synapse sourceNeuronName = "9" targetNeuronName = "0" weight = "0.832098202060582" />
    <synapse sourceNeuronName = "9" targetNeuronName = "1" weight = "0.8927586722380256" />
    <synapse sourceNeuronName = "9" targetNeuronName = "2" weight = "0.2837497285511146" />
    <synapse sourceNeuronName = "9" targetNeuronName = "3" weight = "-0.35904805356335623" />
    <neuron name = "10" type = "sensor" linkName = "000-120-210" />
    <synapse sourceNeuronName = "10" targetNeuronName = "0" weight = "-0.6398152236328054" />
    <synapse sourceNeuronName = "10" targetNeuronName = "1" weight = "-0.9060293919723839" />
    <synapse sourceNeuronName = "10" targetNeuronName = "2" weight = "0.08444102218013083" />
    <synapse sourceNeuronName = "10" targetNeuronName = "3" weight = "0.20721794997460474" />
    <neuron name = "11" type = "sensor" linkName = "000-120-220" />
    <synapse sourceNeuronName = "11" targetNeuronName = "0" weight = "0.4920912418944856" />
    <synapse sourceNeuronName = "11" targetNeuronName = "1" weight = "-0.5512130665525232" />
    <synapse sourceNeuronName = "11" targetNeuronName = "2" weight = "0.12890880851054254" />
    <synapse sourceNeuronName = "11" targetNeuronName = "3" weight = "-0.9897291645949906" />
    <neuron name = "12" type = "sensor" linkName = "000-110-200" />
    <synapse sourceNeuronName = "12" targetNeuronName = "0" weight = "-0.5309553210173208" />
    <synapse sourceNeuronName = "12" targetNeuronName = "1" weight = "0.5525625846415818" />
    <synapse sourceNeuronName = "12" targetNeuronName = "2" weight = "-0.8267084181978519" />
    <synapse sourceNeuronName = "12" targetNeuronName = "3" weight = "0.12492691259116961" />
    <neuron name = "13" type = "sensor" linkName = "000-110-210" />
    <synapse sourceNeuronName = "13" targetNeuronName = "0" weight = "-0.4081391310637701" />
    <synapse sourceNeuronName = "13" targetNeuronName = "1" weight = "-0.43866694730520717" />
    <synapse sourceNeuronName = "13" targetNeuronName = "2" weight = "0.17110716140828774" />
    <synapse sourceNeuronName = "13" targetNeuronName = "3" weight = "0.11593999705069402" />
    <neuron name = "14" type = "sensor" linkName = "000-110-220" />
    <synapse sourceNeuronName = "14" targetNeuronName = "0" weight = "0.3799666297309341" />
    <synapse sourceNeuronName = "14" targetNeuronName = "1" weight = "-0.7179619441847966" />
    <synapse sourceNeuronName = "14" targetNeuronName = "2" weight = "0.9768809325707049" />
    <synapse sourceNeuronName = "14" targetNeuronName = "3" weight = "-0.7309518701148225" />
    <neuron name = "15" type = "sensor" linkName = "000-100-200" />
    <synapse sourceNeuronName = "15" targetNeuronName = "0" weight = "-0.4201940600199301" />
    <synapse sourceNeuronName = "15" targetNeuronName = "1" weight = "0.5902582823498193" />
    <synapse sourceNeuronName = "15" targetNeuronName = "2" weight = "0.5254639346790262" />
    <synapse sourceNeuronName = "15" targetNeuronName = "3" weight = "-0.14591718760547323" />
    <neuron name = "16" type = "sensor" linkName = "000-100-210" />
    <synapse sourceNeuronName = "16" targetNeuronName = "0" weight = "0.7094765731936197" />
    <synapse sourceNeuronName = "16" targetNeuronName = "1" weight = "-0.03829378293114605" />
    <synapse sourceNeuronName = "16" targetNeuronName = "2" weight = "0.02992284882466678" />
    <synapse sourceNeuronName = "16" targetNeuronName = "3" weight = "-0.988127782163301" />
    <neuron name = "17" type = "sensor" linkName = "000-100-220" />
    <synapse sourceNeuronName = "17" targetNeuronName = "0" weight = "0.8546844064524224" />
    <synapse sourceNeuronName = "17" targetNeuronName = "1" weight = "0.49708735724113406" />
    <synapse sourceNeuronName = "17" targetNeuronName = "2" weight = "0.9721997849493622" />
    <synapse sourceNeuronName = "17" targetNeuronName = "3" weight = "0.05482977214656959" />
    <neuron name = "18" type = "sensor" linkName = "000-121-200" />
    <synapse sourceNeuronName = "18" targetNeuronName = "0" weight = "0.7578135109917923" />
    <synapse sourceNeuronName = "18" targetNeuronName = "1" weight = "0.40638485275139424" />
    <synapse sourceNeuronName = "18" targetNeuronName = "2" weight = "-0.7355376776425395" />
    <synapse sourceNeuronName = "18" targetNeuronName = "3" weight = "-0.05501971645637749" />
    <neuron name = "19" type = "sensor" linkName = "000-121-210" />
    <synapse sourceNeuronName = "19" targetNeuronName = "0" weight = "0.6631810303128363" />
    <synapse sourceNeuronName = "19" targetNeuronName = "1" weight = "-0.8243669370278106" />
    <synapse sourceNeuronName = "19" targetNeuronName = "2" weight = "-0.3635926368465425" />
    <synapse sourceNeuronName = "19" targetNeuronName = "3" weight = "-0.29348817062707333" />
    <neuron name = "20" type = "sensor" linkName = "000-121-220" />
    <synapse sourceNeuronName = "20" targetNeuronName = "0" weight = "-0.4171436682037293" />
    <synapse sourceNeuronName = "20" targetNeuronName = "1" weight = "-0.7472575293400643" />
    <synapse sourceNeuronName = "20" targetNeuronName = "2" weight = "0.231571103295658" />
    <synapse sourceNeuronName = "20" targetNeuronName = "3" weight = "-0.43522676157066953" />
    <neuron name = "21" type = "sensor" linkName = "000-111-200" />
    <synapse sourceNeuronName = "21" targetNeuronName = "0" weight = "-0.9596282565276688" />
    <synapse sourceNeuronName = "21" targetNeuronName = "1" weight = "-0.5715981299815587" />
    <synapse sourceNeuronName = "21" targetNeuronName = "2" weight = "-0.183814368390796" />
    <synapse sourceNeuronName = "21" targetNeuronName = "3" weight = "-0.570144990226312" />
    <neuron name = "22" type = "sensor" linkName = "000-111-210" />
    <synapse sourceNeuronName = "22" targetNeuronName = "0" weight = "0.9525688093637994" />
    <synapse sourceNeuronName = "22" targetNeuronName = "1" weight = "0.8473959768638109" />
    <synapse sourceNeuronName = "22" targetNeuronName = "2" weight = "-0.13207264974572874" />
    <synapse sourceNeuronName = "22" targetNeuronName = "3" weight = "-0.5421557793841312" />
    <neuron name = "23" type = "sensor" linkName = "000-111-220" />
    <synapse sourceNeuronName = "23" targetNeuronName = "0" weight = "-0.7535154073159211" />
    <synapse sourceNeuronName = "23" targetNeuronName = "1" weight = "-0.3729687484504167" />
    <synapse sourceNeuronName = "23" targetNeuronName = "2" weight = "-0.8754021992269245" />
    <synapse sourceNeuronName = "23" targetNeuronName = "3" weight = "-0.3196896214967919" />
    <neuron name = "24" type = "sensor" linkName = "000-101-200" />
    <synapse sourceNeuronName = "24" targetNeuronName = "0" weight = "0.6580663080577147" />
    <synapse sourceNeuronName = "24" targetNeuronName = "1" weight = "0.672294664544766" />
    <synapse sourceNeuronName = "24" targetNeuronName = "2" weight = "-0.6527361099453239" />
    <synapse sourceNeuronName = "24" targetNeuronName = "3" weight = "0.23419274633892107" />
    <neuron name = "25" type = "sensor" linkName = "000-101-210" />
    <synapse sourceNeuronName = "25" targetNeuronName = "0" weight = "0.13722228119730184" />
    <synapse sourceNeuronName = "25" targetNeuronName = "1" weight = "0.7978853809412283" />
    <synapse sourceNeuronName = "25" targetNeuronName = "2" weight = "0.6726745779607646" />
    <synapse sourceNeuronName = "25" targetNeuronName = "3" weight = "0.2576153113392754" />
    <neuron name = "26" type = "sensor" linkName = "000-101-220" />
    <synapse sourceNeuronName = "26" targetNeuronName = "0" weight = "0.8449423670384038" />
    <synapse sourceNeuronName = "26" targetNeuronName = "1" weight = "0.005295776920965389" />
    <synapse sourceNeuronName = "26" targetNeuronName = "2" weight = "-0.2935433515933161" />
    <synapse sourceNeuronName = "26" targetNeuronName = "3" weight = "-0.48438571855514767" />
    <neuron name = "27" type = "motor"  jointName = "root_000" />
    <synapse sourceNeuronName = "4" targetNeuronName = "27" weight = "-0.7757401064312577" />
    <synapse sourceNeuronName = "5" targetNeuronName = "27" weight = "-0.542854769944684" />
    <synapse sourceNeuronName = "6" targetNeuronName = "27" weight = "0.9848965225190893" />
    <synapse sourceNeuronName = "7" targetNeuronName = "27" weight = "-0.08164783909360107" />
    <neuron name = "28" type = "motor"  jointName = "000_000-100" />
    <synapse sourceNeuronName = "4" targetNeuronName = "28" weight = "0.6658803892786906" />
    <synapse sourceNeuronName = "5" targetNeuronName = "28" weight = "-0.8643824457858378" />
    <synapse sourceNeuronName = "6" targetNeuronName = "28" weight = "-0.3879476408132758" />
    <synapse sourceNeuronName = "7" targetNeuronName = "28" weight = "0.21029578710387864" />
    <neuron name = "29" type = "motor"  jointName = "000-100_000-110" />
    <synapse sourceNeuronName = "4" targetNeuronName = "29" weight = "0.584754432943269" />
    <synapse sourceNeuronName = "5" targetNeuronName = "29" weight = "0.1542400437348297" />
    <synapse sourceNeuronName = "6" targetNeuronName = "29" weight = "-0.8513457219304592" />
    <synapse sourceNeuronName = "7" targetNeuronName = "29" weight = "-0.6030910813715049" />
    <neuron name = "30" type = "motor"  jointName = "000-110_000-120" />
    <synapse sourceNeuronName = "4" targetNeuronName = "30" weight = "0.5578568637546373" />
    <synapse sourceNeuronName = "5" targetNeuronName = "30" weight = "0.9828731725097566" />
    <synapse sourceNeuronName = "6" targetNeuronName = "30" weight = "0.44405049957536447" />
    <synapse sourceNeuronName = "7" targetNeuronName = "30" weight = "-0.40959349080491725" />
    <neuron name = "31" type = "motor"  jointName = "000-120_000-120-200" />
    <synapse sourceNeuronName = "4" targetNeuronName = "31" weight = "0.004393458405985262" />
    <synapse sourceNeuronName = "5" targetNeuronName = "31" weight = "-0.27342078205905174" />
    <synapse sourceNeuronName = "6" targetNeuronName = "31" weight = "-0.09559612139616402" />
    <synapse sourceNeuronName = "7" targetNeuronName = "31" weight = "-0.25063469797306404" />
    <neuron name = "32" type = "motor"  jointName = "000-120-200_000-120-210" />
    <synapse sourceNeuronName = "4" targetNeuronName = "32" weight = "-0.45304724314912415" />
    <synapse sourceNeuronName = "5" targetNeuronName = "32" weight = "-0.71049642256293" />
    <synapse sourceNeuronName = "6" targetNeuronName = "32" weight = "-0.7139746256341699" />
    <synapse sourceNeuronName = "7" targetNeuronName = "32" weight = "-0.6735633589989487" />
    <neuron name = "33" type = "motor"  jointName = "000-120-210_000-120-220" />
    <synapse sourceNeuronName = "4" targetNeuronName = "33" weight = "-0.7409179400485819" />
    <synapse sourceNeuronName = "5" targetNeuronName = "33" weight = "-0.9182055778086402" />
    <synapse sourceNeuronName = "6" targetNeuronName = "33" weight = "0.925090168963528" />
    <synapse sourceNeuronName = "7" targetNeuronName = "33" weight = "-0.6144310797325541" />
    <neuron name = "34" type = "motor"  jointName = "000-110_000-110-200" />
    <synapse sourceNeuronName = "4" targetNeuronName = "34" weight = "0.576856988851975" />
    <synapse sourceNeuronName = "5" targetNeuronName = "34" weight = "-0.6260182255874747" />
    <synapse sourceNeuronName = "6" targetNeuronName = "34" weight = "0.9321133583230163" />
    <synapse sourceNeuronName = "7" targetNeuronName = "34" weight = "0.8206861671435517" />
    <neuron name = "35" type = "motor"  jointName = "000-110-200_000-110-210" />
    <synapse sourceNeuronName = "4" targetNeuronName = "35" weight = "0.06488443658827725" />
    <synapse sourceNeuronName = "5" targetNeuronName = "35" weight = "-0.2284589023300616" />
    <synapse sourceNeuronName = "6" targetNeuronName = "35" weight = "-0.25121578948381185" />
    <synapse sourceNeuronName = "7" targetNeuronName = "35" weight = "0.439123914503031" />
    <neuron name = "36" type = "motor"  jointName = "000-110-210_000-110-220" />
    <synapse sourceNeuronName = "4" targetNeuronName = "36" weight = "-0.5319157246166171" />
    <synapse sourceNeuronName = "5" targetNeuronName = "36" weight = "-0.9316944615369755" />
    <synapse sourceNeuronName = "6" targetNeuronName = "36" weight = "-0.367438377850839" />
    <synapse sourceNeuronName = "7" targetNeuronName = "36" weight = "0.6451864667553846" />
    <neuron name = "37" type = "motor"  jointName = "000-100_000-100-200" />
    <synapse sourceNeuronName = "4" targetNeuronName = "37" weight = "-0.6096360924843094" />
    <synapse sourceNeuronName = "5" targetNeuronName = "37" weight = "0.10774552338264254" />
    <synapse sourceNeuronName = "6" targetNeuronName = "37" weight = "0.09225585200126618" />
    <synapse sourceNeuronName = "7" targetNeuronName = "37" weight = "-0.39401098438322335" />
    <neuron name = "38" type = "motor"  jointName = "000-100-200_000-100-210" />
    <synapse sourceNeuronName = "4" targetNeuronName = "38" weight = "-0.5481635988533036" />
    <synapse sourceNeuronName = "5" targetNeuronName = "38" weight = "0.5979513114987483" />
    <synapse sourceNeuronName = "6" targetNeuronName = "38" weight = "0.319578604772748" />
    <synapse sourceNeuronName = "7" targetNeuronName = "38" weight = "0.10793900133106682" />
    <neuron name = "39" type = "motor"  jointName = "000-100-210_000-100-220" />
    <synapse sourceNeuronName = "4" targetNeuronName = "39" weight = "0.09432990068102276" />
    <synapse sourceNeuronName = "5" targetNeuronName = "39" weight = "0.21463569133876303" />
    <synapse sourceNeuronName = "6" targetNeuronName = "39" weight = "-0.29259657026116925" />
    <synapse sourceNeuronName = "7" targetNeuronName = "39" weight = "0.9349880244463571" />
    <neuron name = "40" type = "motor"  jointName = "000_000-101" />
    <synapse sourceNeuronName = "4" targetNeuronName = "40" weight = "-0.8448841401479816" />
    <synapse sourceNeuronName = "5" targetNeuronName = "40" weight = "-0.619613337464749" />
    <synapse sourceNeuronName = "6" targetNeuronName = "40" weight = "-0.9102359593143716" />
    <synapse sourceNeuronName = "7" targetNeuronName = "40" weight = "0.6172654321156092" />
    <neuron name = "41" type = "motor"  jointName = "000-101_000-111" />
    <synapse sourceNeuronName = "4" targetNeuronName = "41" weight = "0.24832189026123364" />
    <synapse sourceNeuronName = "5" targetNeuronName = "41" weight = "0.006781307293529215" />
    <synapse sourceNeuronName = "6" targetNeuronName = "41" weight = "-0.17165621064697456" />
    <synapse sourceNeuronName = "7" targetNeuronName = "41" weight = "-0.03575271284953585" />
    <neuron name = "42" type = "motor"  jointName = "000-111_000-121" />
    <synapse sourceNeuronName = "4" targetNeuronName = "42" weight = "-0.23293158704943928" />
    <synapse sourceNeuronName = "5" targetNeuronName = "42" weight = "0.33077734097104217" />
    <synapse sourceNeuronName = "6" targetNeuronName = "42" weight = "-0.32191626118047423" />
    <synapse sourceNeuronName = "7" targetNeuronName = "42" weight = "0.8225877042153125" />
    <neuron name = "43" type = "motor"  jointName = "000-121_000-121-200" />
    <synapse sourceNeuronName = "4" targetNeuronName = "43" weight = "-0.8485219522291925" />
    <synapse sourceNeuronName = "5" targetNeuronName = "43" weight = "0.2484617825474571" />
    <synapse sourceNeuronName = "6" targetNeuronName = "43" weight = "0.11165468708529813" />
    <synapse sourceNeuronName = "7" targetNeuronName = "43" weight = "-0.18120495480656773" />
    <neuron name = "44" type = "motor"  jointName = "000-121-200_000-121-210" />
    <synapse sourceNeuronName = "4" targetNeuronName = "44" weight = "0.6289649060377949" />
    <synapse sourceNeuronName = "5" targetNeuronName = "44" weight = "-0.9880091268158877" />
    <synapse sourceNeuronName = "6" targetNeuronName = "44" weight = "0.8137799662522498" />
    <synapse sourceNeuronName = "7" targetNeuronName = "44" weight = "0.8748913503624449" />
    <neuron name = "45" type = "motor"  jointName = "000-121-210_000-121-220" />
    <synapse sourceNeuronName = "4" targetNeuronName = "45" weight = "0.8109894253343981" />
    <synapse sourceNeuronName = "5" targetNeuronName = "45" weight = "0.10044688977631067" />
    <synapse sourceNeuronName = "6" targetNeuronName = "45" weight = "-0.5248528425697057" />
    <synapse sourceNeuronName = "7" targetNeuronName = "45" weight = "-0.5063133499489829" />
    <neuron name = "46" type = "motor"  jointName = "000-111_000-111-200" />
    <synapse sourceNeuronName = "4" targetNeuronName = "46" weight = "-0.9527863170358368" />
    <synapse sourceNeuronName = "5" targetNeuronName = "46" weight = "-0.6735888235481853" />
    <synapse sourceNeuronName = "6" targetNeuronName = "46" weight = "-0.5810645612267542" />
    <synapse sourceNeuronName = "7" targetNeuronName = "46" weight = "-0.20432391985221443" />
    <neuron name = "47" type = "motor"  jointName = "000-111-200_000-111-210" />
    <synapse sourceNeuronName = "4" targetNeuronName = "47" weight = "-0.6193806115181242" />
    <synapse sourceNeuronName = "5" targetNeuronName = "47" weight = "0.26450556993523433" />
    <synapse sourceNeuronName = "6" targetNeuronName = "47" weight = "-0.5598073467160467" />
    <synapse sourceNeuronName = "7" targetNeuronName = "47" weight = "-0.3720195134868465" />
    <neuron name = "48" type = "motor"  jointName = "000-111-210_000-111-220" />
    <synapse sourceNeuronName = "4" targetNeuronName = "48" weight = "-0.3793521529433461" />
    <synapse sourceNeuronName = "5" targetNeuronName = "48" weight = "0.7225709163871967" />
    <synapse sourceNeuronName = "6" targetNeuronName = "48" weight = "-0.6055701023461808" />
    <synapse sourceNeuronName = "7" targetNeuronName = "48" weight = "-0.009727207687506123" />
    <neuron name = "49" type = "motor"  jointName = "000-101_000-101-200" />
    <synapse sourceNeuronName = "4" targetNeuronName = "49" weight = "-0.7455306801526118" />
    <synapse sourceNeuronName = "5" targetNeuronName = "49" weight = "-0.942945896551441" />
    <synapse sourceNeuronName = "6" targetNeuronName = "49" weight = "-0.04136801854723138" />
    <synapse sourceNeuronName = "7" targetNeuronName = "49" weight = "0.6806113043362458" />
    <neuron name = "50" type = "motor"  jointName = "000-101-200_000-101-210" />
    <synapse sourceNeuronName = "4" targetNeuronName = "50" weight = "0.317840609301695" />
    <synapse sourceNeuronName = "5" targetNeuronName = "50" weight = "-0.7641143882242196" />
    <synapse sourceNeuronName = "6" targetNeuronName = "50" weight = "-0.9024334163606975" />
    <synapse sourceNeuronName = "7" targetNeuronName = "50" weight = "0.803306105184133" />
    <neuron name = "51" type = "motor"  jointName = "000-101-210_000-101-220" />
    <synapse sourceNeuronName = "4" targetNeuronName = "51" weight = "-0.25892712032668386" />
    <synapse sourceNeuronName = "5" targetNeuronName = "51" weight = "0.7793581987653604" />
    <synapse sourceNeuronName = "6" targetNeuronName = "51" weight = "0.5343788145305435" />
    <synapse sourceNeuronName = "7" targetNeuronName = "51" weight = "-0.2452067717651869" />
</robot>