<robot name = "robot">
    <neuron name = "0" type = "sensor" linkName = "root" />
    <neuron name = "1" type = "sensor" linkName = "000" />
    <neuron name = "2" type = "sensor" linkName = "010" />
    <neuron name = "3" type = "sensor" linkName = "010-100" />
    <neuron name = "4" type = "sensor" linkName = "010-110" />
    <neuron name = "5" type = "sensor" linkName = "010-120" />
    <neuron name = "6" type = "motor"  jointName = "root_000" />
    <neuron name = "7" type = "motor"  jointName = "000_010" />
    <neuron name = "8" type = "motor"  jointName = "010_010-100" />
    <neuron name = "9" type = "motor"  jointName = "010-100_010-110" />
    <neuron name = "10" type = "motor"  jointName = "010-110_010-120" />
    <neuron name = "11" type = "motor"  jointName = "010-120_010-120-200" />
    <neuron name = "12" type = "motor"  jointName = "010-120-200_010-120-200-300" />
    <neuron name = "13" type = "motor"  jointName = "010-120-200-300_010-120-200-310" />
    <neuron name = "14" type = "motor"  jointName = "010-120-200-310_010-120-200-320" />
    <neuron name = "15" type = "motor"  jointName = "010-120_010-120-201" />
    <neuron name = "16" type = "motor"  jointName = "010-120-201_010-120-201-300" />
    <neuron name = "17" type = "motor"  jointName = "010-120-201-300_010-120-201-310" />
    <neuron name = "18" type = "motor"  jointName = "010-120-201-310_010-120-201-320" />
    <neuron name = "19" type = "motor"  jointName = "010-100_010-100-200" />
    <neuron name = "20" type = "motor"  jointName = "010-100_010-100-201" />
    <synapse sourceNeuronName = "0" targetNeuronName = "6" weight = "0.21640856206584114" />
    <synapse sourceNeuronName = "0" targetNeuronName = "7" weight = "0.5390832627848314" />
    <synapse sourceNeuronName = "0" targetNeuronName = "8" weight = "0.7691192768738209" />
    <synapse sourceNeuronName = "0" targetNeuronName = "9" weight = "-0.8142408097807816" />
    <synapse sourceNeuronName = "0" targetNeuronName = "10" weight = "-0.7411061009687645" />
    <synapse sourceNeuronName = "0" targetNeuronName = "11" weight = "0.9618707916326643" />
    <synapse sourceNeuronName = "0" targetNeuronName = "12" weight = "-0.6645055668226956" />
    <synapse sourceNeuronName = "0" targetNeuronName = "13" weight = "0.7994182682764039" />
    <synapse sourceNeuronName = "0" targetNeuronName = "14" weight = "-0.7056772206573996" />
    <synapse sourceNeuronName = "0" targetNeuronName = "15" weight = "0.6436534214622407" />
    <synapse sourceNeuronName = "0" targetNeuronName = "16" weight = "-0.16010990819031212" />
    <synapse sourceNeuronName = "0" targetNeuronName = "17" weight = "0.4208352699435207" />
    <synapse sourceNeuronName = "0" targetNeuronName = "18" weight = "0.25773338300042825" />
    <synapse sourceNeuronName = "0" targetNeuronName = "19" weight = "-0.02137631421477515" />
    <synapse sourceNeuronName = "0" targetNeuronName = "20" weight = "0.43593177557270124" />
    <synapse sourceNeuronName = "1" targetNeuronName = "6" weight = "-0.6064285676090413" />
    <synapse sourceNeuronName = "1" targetNeuronName = "7" weight = "0.18316851121922628" />
    <synapse sourceNeuronName = "1" targetNeuronName = "8" weight = "0.21202876679593397" />
    <synapse sourceNeuronName = "1" targetNeuronName = "9" weight = "-0.837323415918914" />
    <synapse sourceNeuronName = "1" targetNeuronName = "10" weight = "-0.7494680418305053" />
    <synapse sourceNeuronName = "1" targetNeuronName = "11" weight = "-0.7184126382091363" />
    <synapse sourceNeuronName = "1" targetNeuronName = "12" weight = "0.9006411531338923" />
    <synapse sourceNeuronName = "1" targetNeuronName = "13" weight = "0.6747547779472203" />
    <synapse sourceNeuronName = "1" targetNeuronName = "14" weight = "0.9486241809835281" />
    <synapse sourceNeuronName = "1" targetNeuronName = "15" weight = "0.6788164773700649" />
    <synapse sourceNeuronName = "1" targetNeuronName = "16" weight = "-0.8086255331949554" />
    <synapse sourceNeuronName = "1" targetNeuronName = "17" weight = "-0.15141477249079105" />
    <synapse sourceNeuronName = "1" targetNeuronName = "18" weight = "-0.8517320078123529" />
    <synapse sourceNeuronName = "1" targetNeuronName = "19" weight = "-0.36721297085282334" />
    <synapse sourceNeuronName = "1" targetNeuronName = "20" weight = "-0.9358076864411826" />
    <synapse sourceNeuronName = "2" targetNeuronName = "6" weight = "-0.8007798647456819" />
    <synapse sourceNeuronName = "2" targetNeuronName = "7" weight = "0.13555124738932278" />
    <synapse sourceNeuronName = "2" targetNeuronName = "8" weight = "-0.9016934484696724" />
    <synapse sourceNeuronName = "2" targetNeuronName = "9" weight = "-0.3460182083196932" />
    <synapse sourceNeuronName = "2" targetNeuronName = "10" weight = "0.7173735090223894" />
    <synapse sourceNeuronName = "2" targetNeuronName = "11" weight = "-0.06520842370961888" />
    <synapse sourceNeuronName = "2" targetNeuronName = "12" weight = "-0.17102278175976893" />
    <synapse sourceNeuronName = "2" targetNeuronName = "13" weight = "0.6334456279868919" />
    <synapse sourceNeuronName = "2" targetNeuronName = "14" weight = "0.8243864611646106" />
    <synapse sourceNeuronName = "2" targetNeuronName = "15" weight = "-0.35199249622450646" />
    <synapse sourceNeuronName = "2" targetNeuronName = "16" weight = "0.4468071564337839" />
    <synapse sourceNeuronName = "2" targetNeuronName = "17" weight = "-0.9972825381932291" />
    <synapse sourceNeuronName = "2" targetNeuronName = "18" weight = "-0.8308772575889216" />
    <synapse sourceNeuronName = "2" targetNeuronName = "19" weight = "-0.645855920047498" />
    <synapse sourceNeuronName = "2" targetNeuronName = "20" weight = "-0.8884657356739063" />
    <synapse sourceNeuronName = "3" targetNeuronName = "6" weight = "-0.82943504498348" />
    <synapse sourceNeuronName = "3" targetNeuronName = "7" weight = "-0.3649968740922147" />
    <synapse sourceNeuronName = "3" targetNeuronName = "8" weight = "0.09135895880004141" />
    <synapse sourceNeuronName = "3" targetNeuronName = "9" weight = "0.13876304866034772" />
    <synapse sourceNeuronName = "3" targetNeuronName = "10" weight = "-0.38754375839547683" />
    <synapse sourceNeuronName = "3" targetNeuronName = "11" weight = "-0.6362079989020641" />
    <synapse sourceNeuronName = "3" targetNeuronName = "12" weight = "-0.1377468900384966" />
    <synapse sourceNeuronName = "3" targetNeuronName = "13" weight = "-0.344195495649656" />
    <synapse sourceNeuronName = "3" targetNeuronName = "14" weight = "0.32363010774396805" />
    <synapse sourceNeuronName = "3" targetNeuronName = "15" weight = "-0.6894850942443107" />
    <synapse sourceNeuronName = "3" targetNeuronName = "16" weight = "0.4577062853859344" />
    <synapse sourceNeuronName = "3" targetNeuronName = "17" weight = "0.6152247157505277" />
    <synapse sourceNeuronName = "3" targetNeuronName = "18" weight = "-0.845366722734268" />
    <synapse sourceNeuronName = "3" targetNeuronName = "19" weight = "-0.20926282021422438" />
    <synapse sourceNeuronName = "3" targetNeuronName = "20" weight = "0.1265412258994265" />
    <synapse sourceNeuronName = "4" targetNeuronName = "6" weight = "-0.8407006935103267" />
    <synapse sourceNeuronName = "4" targetNeuronName = "7" weight = "0.287694268748256" />
    <synapse sourceNeuronName = "4" targetNeuronName = "8" weight = "-0.8452146728055576" />
    <synapse sourceNeuronName = "4" targetNeuronName = "9" weight = "0.8058895898296243" />
    <synapse sourceNeuronName = "4" targetNeuronName = "10" weight = "0.9394318147387295" />
    <synapse sourceNeuronName = "4" targetNeuronName = "11" weight = "0.5318515120124541" />
    <synapse sourceNeuronName = "4" targetNeuronName = "12" weight = "0.08788339324432304" />
    <synapse sourceNeuronName = "4" targetNeuronName = "13" weight = "-0.6863811611839252" />
    <synapse sourceNeuronName = "4" targetNeuronName = "14" weight = "-0.7040797656878628" />
    <synapse sourceNeuronName = "4" targetNeuronName = "15" weight = "0.43355918979371677" />
    <synapse sourceNeuronName = "4" targetNeuronName = "16" weight = "0.745851278605842" />
    <synapse sourceNeuronName = "4" targetNeuronName = "17" weight = "0.6053701273387997" />
    <synapse sourceNeuronName = "4" targetNeuronName = "18" weight = "-0.5936189720307985" />
    <synapse sourceNeuronName = "4" targetNeuronName = "19" weight = "0.1928228380716075" />
    <synapse sourceNeuronName = "4" targetNeuronName = "20" weight = "0.48734900353933996" />
    <synapse sourceNeuronName = "5" targetNeuronName = "6" weight = "-0.40214114617568386" />
    <synapse sourceNeuronName = "5" targetNeuronName = "7" weight = "-0.7635645306426653" />
    <synapse sourceNeuronName = "5" targetNeuronName = "8" weight = "0.7435230729284508" />
    <synapse sourceNeuronName = "5" targetNeuronName = "9" weight = "-0.46092389860231187" />
    <synapse sourceNeuronName = "5" targetNeuronName = "10" weight = "0.03837432998449697" />
    <synapse sourceNeuronName = "5" targetNeuronName = "11" weight = "0.1791648392894909" />
    <synapse sourceNeuronName = "5" targetNeuronName = "12" weight = "-0.45149525461617324" />
    <synapse sourceNeuronName = "5" targetNeuronName = "13" weight = "0.14785952361936605" />
    <synapse sourceNeuronName = "5" targetNeuronName = "14" weight = "0.4524285237077803" />
    <synapse sourceNeuronName = "5" targetNeuronName = "15" weight = "0.9476902869036659" />
    <synapse sourceNeuronName = "5" targetNeuronName = "16" weight = "0.9627724497282428" />
    <synapse sourceNeuronName = "5" targetNeuronName = "17" weight = "0.5445231725631869" />
    <synapse sourceNeuronName = "5" targetNeuronName = "18" weight = "0.9716552514695234" />
    <synapse sourceNeuronName = "5" targetNeuronName = "19" weight = "-0.5062391539358755" />
    <synapse sourceNeuronName = "5" targetNeuronName = "20" weight = "0.2513084747087404" />
</robot>