<robot name = "robot">
 <neuron name = "0" type = "hidden" />
 <neuron name = "1" type = "hidden" />
 <neuron name = "2" type = "hidden" />
 <neuron name = "3" type = "hidden" />
    <neuron name = "4" type = "sensor" linkName = "root" />
    <synapse sourceNeuronName = "4" targetNeuronName = "0" weight = "-0.9762458380126842" />
    <synapse sourceNeuronName = "4" targetNeuronName = "1" weight = "0.03791066813235666" />
    <synapse sourceNeuronName = "4" targetNeuronName = "2" weight = "-0.3569548834500129" />
    <synapse sourceNeuronName = "4" targetNeuronName = "3" weight = "-0.02910661912980439" />
    <neuron name = "5" type = "sensor" linkName = "010-100-200-300" />
    <synapse sourceNeuronName = "5" targetNeuronName = "0" weight = "0.3724763356857499" />
    <synapse sourceNeuronName = "5" targetNeuronName = "1" weight = "0.04245742509862427" />
    <synapse sourceNeuronName = "5" targetNeuronName = "2" weight = "0.8059948300455961" />
    <synapse sourceNeuronName = "5" targetNeuronName = "3" weight = "0.21592044958054846" />
    <neuron name = "6" type = "sensor" linkName = "010-100-200-310" />
    <synapse sourceNeuronName = "6" targetNeuronName = "0" weight = "-0.8518087334742901" />
    <synapse sourceNeuronName = "6" targetNeuronName = "1" weight = "0.42084876413383454" />
    <synapse sourceNeuronName = "6" targetNeuronName = "2" weight = "0.2185479769059986" />
    <synapse sourceNeuronName = "6" targetNeuronName = "3" weight = "-0.261726431243831" />
    <neuron name = "7" type = "sensor" linkName = "010-100-201-300" />
    <synapse sourceNeuronName = "7" targetNeuronName = "0" weight = "0.9750856344684529" />
    <synapse sourceNeuronName = "7" targetNeuronName = "1" weight = "-0.25281831808948585" />
    <synapse sourceNeuronName = "7" targetNeuronName = "2" weight = "0.9756839465729199" />
    <synapse sourceNeuronName = "7" targetNeuronName = "3" weight = "-0.7860119549690077" />
    <neuron name = "8" type = "sensor" linkName = "010-100-201-310" />
    <synapse sourceNeuronName = "8" targetNeuronName = "0" weight = "0.05421394811753877" />
    <synapse sourceNeuronName = "8" targetNeuronName = "1" weight = "-0.4492304084700778" />
    <synapse sourceNeuronName = "8" targetNeuronName = "2" weight = "-0.5387183332205774" />
    <synapse sourceNeuronName = "8" targetNeuronName = "3" weight = "-0.9463329324862204" />
    <neuron name = "9" type = "motor"  jointName = "root_000" />
    <synapse sourceNeuronName = "0" targetNeuronName = "9" weight = "0.4433683280032199" />
    <synapse sourceNeuronName = "1" targetNeuronName = "9" weight = "0.3145838947367614" />
    <synapse sourceNeuronName = "2" targetNeuronName = "9" weight = "0.8005509173057435" />
    <synapse sourceNeuronName = "3" targetNeuronName = "9" weight = "0.8290255121919798" />
    <neuron name = "10" type = "motor"  jointName = "000_010" />
    <synapse sourceNeuronName = "0" targetNeuronName = "10" weight = "-0.28684852273851713" />
    <synapse sourceNeuronName = "1" targetNeuronName = "10" weight = "0.2558024999195925" />
    <synapse sourceNeuronName = "2" targetNeuronName = "10" weight = "-0.13620569065126342" />
    <synapse sourceNeuronName = "3" targetNeuronName = "10" weight = "0.33251100104333897" />
    <neuron name = "11" type = "motor"  jointName = "010_010-100" />
    <synapse sourceNeuronName = "0" targetNeuronName = "11" weight = "0.09125740187450382" />
    <synapse sourceNeuronName = "1" targetNeuronName = "11" weight = "-0.5400364700461715" />
    <synapse sourceNeuronName = "2" targetNeuronName = "11" weight = "0.18622828881554976" />
    <synapse sourceNeuronName = "3" targetNeuronName = "11" weight = "0.7639294192905788" />
    <neuron name = "12" type = "motor"  jointName = "010-100_010-100-200" />
    <synapse sourceNeuronName = "0" targetNeuronName = "12" weight = "0.9412902906209253" />
    <synapse sourceNeuronName = "1" targetNeuronName = "12" weight = "-0.6699308118033325" />
    <synapse sourceNeuronName = "2" targetNeuronName = "12" weight = "-0.7191797097919694" />
    <synapse sourceNeuronName = "3" targetNeuronName = "12" weight = "0.6747685537915473" />
    <neuron name = "13" type = "motor"  jointName = "010-100-200_010-100-200-300" />
    <synapse sourceNeuronName = "0" targetNeuronName = "13" weight = "0.5968287620247981" />
    <synapse sourceNeuronName = "1" targetNeuronName = "13" weight = "0.9368158249906922" />
    <synapse sourceNeuronName = "2" targetNeuronName = "13" weight = "-0.7078051949405497" />
    <synapse sourceNeuronName = "3" targetNeuronName = "13" weight = "-0.6148000947512551" />
    <neuron name = "14" type = "motor"  jointName = "010-100-200-300_010-100-200-310" />
    <synapse sourceNeuronName = "0" targetNeuronName = "14" weight = "-0.9600070546450301" />
    <synapse sourceNeuronName = "1" targetNeuronName = "14" weight = "0.9719023309099089" />
    <synapse sourceNeuronName = "2" targetNeuronName = "14" weight = "-0.30443913941251255" />
    <synapse sourceNeuronName = "3" targetNeuronName = "14" weight = "0.6464611429166294" />
    <neuron name = "15" type = "motor"  jointName = "010-100_010-100-201" />
    <synapse sourceNeuronName = "0" targetNeuronName = "15" weight = "0.5299420488250572" />
    <synapse sourceNeuronName = "1" targetNeuronName = "15" weight = "-0.7508108474106361" />
    <synapse sourceNeuronName = "2" targetNeuronName = "15" weight = "0.8005538292754586" />
    <synapse sourceNeuronName = "3" targetNeuronName = "15" weight = "0.7054017894924673" />
    <neuron name = "16" type = "motor"  jointName = "010-100-201_010-100-201-300" />
    <synapse sourceNeuronName = "0" targetNeuronName = "16" weight = "-0.6329440224286627" />
    <synapse sourceNeuronName = "1" targetNeuronName = "16" weight = "0.05647633713371114" />
    <synapse sourceNeuronName = "2" targetNeuronName = "16" weight = "0.30905703114031224" />
    <synapse sourceNeuronName = "3" targetNeuronName = "16" weight = "0.3938540044391592" />
    <neuron name = "17" type = "motor"  jointName = "010-100-201-300_010-100-201-310" />
    <synapse sourceNeuronName = "0" targetNeuronName = "17" weight = "-0.42319577209947057" />
    <synapse sourceNeuronName = "1" targetNeuronName = "17" weight = "0.9197184649215755" />
    <synapse sourceNeuronName = "2" targetNeuronName = "17" weight = "0.6851207360965703" />
    <synapse sourceNeuronName = "3" targetNeuronName = "17" weight = "0.5676479008148345" />
</robot>